27 100
</s> 0.004003 0.004419 -0.003830 -0.003278 0.001367 0.003021 0.000941 0.000211 -0.003604 0.002218 -0.004356 0.001250 -0.000751 -0.000957 -0.003316 -0.001882 0.002579 0.003025 0.002969 0.001597 0.001545 -0.003803 -0.004096 0.004970 0.003801 0.003090 -0.000604 0.004016 -0.000495 0.000735 -0.000149 -0.002983 0.001312 -0.001337 -0.003825 0.004754 0.004379 -0.001095 -0.000226 0.000509 -0.003638 -0.004007 0.004555 0.000063 -0.002582 -0.003042 -0.003076 0.001697 0.000201 0.001331 -0.004214 -0.003808 -0.000130 0.001144 0.002550 -0.003170 0.004080 0.000927 0.001120 -0.000608 0.002986 -0.002288 -0.002097 0.002158 -0.000753 0.001031 0.001805 -0.004089 -0.001983 0.002914 0.004232 0.003932 -0.003047 -0.002108 -0.000909 0.002001 -0.003788 0.002998 0.002788 -0.001599 -0.001552 -0.002238 0.004229 0.003912 -0.001180 0.004215 0.004820 0.001815 0.004983 -0.003111 -0.001532 -0.002107 -0.002907 0.002815 0.001579 0.000425 -0.002194 0.001524 0.003059 0.000194
中国 0.024400 0.173748 0.130657 -0.038740 -0.064058 0.105071 0.346041 -0.038868 -0.393010 0.044488 0.153906 -0.027875 -0.005167 -0.217343 0.182777 0.674007 0.230700 0.210640 -0.206856 -0.004018 -0.140890 -0.240533 0.305424 0.236162 0.044637 -0.060728 0.399820 -0.238049 0.326883 0.176231 0.028612 0.289660 0.053320 -0.116947 -0.206560 -0.084129 0.231613 -0.055822 -0.062011 -0.242142 -0.256825 -0.310731 -0.379657 0.177506 0.095202 0.019825 -0.459759 0.473209 -0.183077 0.333150 0.065043 -0.077437 -0.619734 0.046794 -0.047682 -0.375343 -0.017344 0.134417 -0.014046 -0.146156 0.386023 0.348915 0.434031 -0.125557 -0.571108 0.114269 0.176495 -0.094212 0.121089 -0.293456 0.090280 -0.199425 -0.247851 -0.069216 -0.117392 -0.002082 -0.421370 0.057045 0.242091 0.578389 0.046765 0.002212 -0.028816 -0.029996 0.097118 0.171494 0.046555 0.101997 -0.038694 0.340561 -0.309958 0.097561 0.335816 0.221677 -0.137439 -0.076221 0.298984 0.211282 -0.187768 0.356974
<DIGIT>日 0.167508 0.507304 0.065906 0.137011 0.009664 -0.084354 0.020753 0.109218 -0.070087 0.051828 0.075146 -0.026936 0.340974 0.266471 0.392235 0.501776 -0.061566 0.130024 -0.094546 0.518261 0.239821 0.226398 -0.127855 0.475419 0.444362 -0.105330 0.025508 -0.158644 0.019830 -0.187348 -0.024404 -0.129457 -0.172039 0.170577 0.225126 0.333886 -0.100075 -0.004787 -0.244428 -0.011949 -0.538998 0.159862 -0.149322 0.414055 -0.227494 -0.074143 -0.603382 0.504167 0.047330 0.540403 -0.228997 -0.231568 0.027191 0.184474 0.343929 -0.275006 0.307833 -0.300441 0.174874 -0.178282 0.387000 -0.139187 0.329350 -0.031813 -0.348490 -0.050234 0.564449 0.550306 -0.164815 0.004894 0.085173 -0.011720 -0.214160 0.104766 -0.213641 -0.435825 -0.540453 -0.470809 0.202621 0.241812 0.448907 0.017939 0.055698 0.143171 0.240788 0.024501 -0.119654 0.178786 0.228657 -0.204245 -0.407656 -0.271650 0.399824 0.215661 0.420061 -0.098644 0.498226 0.209893 -0.289259 0.157205
<DIGIT>年 0.074928 0.348783 -0.112979 0.132517 0.031945 -0.397042 0.279268 0.318532 -0.344261 0.313986 0.243595 0.098586 0.201252 -0.136614 0.371415 0.678088 0.205468 0.330864 0.020519 0.285387 0.210712 0.165662 0.030575 -0.030837 0.312675 -0.211531 0.024352 -0.504027 -0.076537 0.102967 -0.044017 0.132588 -0.200867 0.292705 -0.342150 0.220204 -0.101605 -0.033818 -0.292695 0.057075 -0.202169 0.318894 -0.430100 0.345925 0.034361 -0.014215 -0.302281 0.658015 -0.045495 0.110059 0.072270 0.198628 -0.166367 0.281298 0.063953 -0.052808 -0.257190 -0.169378 0.116243 -0.226166 0.476943 -0.069732 0.107150 0.270281 -0.256949 -0.000116 0.257978 -0.082977 -0.497898 -0.138524 0.210869 -0.004278 -0.064611 0.243330 -0.094977 -0.065925 -0.631255 -0.227756 0.052070 0.064269 0.168785 0.138872 -0.493262 0.202877 -0.108809 0.127269 -0.196531 -0.354049 0.159661 -0.080458 -0.224502 0.089303 -0.005936 0.194089 0.216191 -0.081437 0.091089 0.012392 -0.132508 -0.031440
<DIGIT>月 0.110720 0.384510 0.051577 0.022958 0.085091 -0.243602 0.147737 0.110843 -0.238328 0.048673 0.276748 0.113638 0.276217 0.175019 0.418626 0.587791 0.129568 0.283320 -0.013979 0.375949 0.135612 0.428157 -0.083057 0.539454 0.564629 -0.316715 0.105826 -0.335544 -0.337742 -0.232087 -0.124610 -0.064499 -0.361002 0.302453 -0.148965 0.197428 -0.189281 0.058266 -0.281171 0.159863 -0.471173 0.244465 -0.262111 0.424437 -0.198062 0.072147 -0.367043 0.670259 0.080812 0.293764 -0.077753 -0.327418 0.063357 0.215842 0.190265 -0.224774 0.166912 -0.173841 0.110034 -0.229566 0.499704 0.072779 0.075455 0.020197 -0.339183 -0.037077 0.582659 0.486076 -0.440482 0.001862 0.100703 0.097701 -0.035837 0.154984 -0.282042 -0.480325 -0.553217 -0.350348 0.111031 0.161856 0.289980 0.388054 -0.272928 0.337982 0.024853 0.299088 -0.092789 0.122549 0.302562 -0.315909 -0.277816 -0.199973 0.233339 0.156739 0.438658 0.038439 0.340292 0.105542 -0.141075 0.187078
说, 0.060740 0.271210 0.006845 0.209875 -0.452227 -0.148240 0.137353 0.260765 -0.055025 -0.108350 -0.039686 -0.027748 0.051525 -0.058560 0.210234 0.014393 0.272582 0.352951 -0.179781 0.008839 -0.017053 0.192650 0.147734 -0.208368 0.077042 -0.189521 -0.071604 -0.170865 0.242579 0.045280 0.274172 0.141580 -0.000517 -0.081279 -0.014903 0.107152 0.076152 -0.152140 -0.180699 -0.509143 -0.272112 0.281960 -0.208606 0.434359 -0.017699 -0.211838 -0.555615 0.483854 -0.153839 0.224199 0.097834 -0.197869 -0.124159 -0.042278 0.167174 -0.157454 0.266794 -0.515175 -0.018030 -0.035258 0.275846 -0.161441 0.135771 0.041042 0.331831 -0.703950 0.142128 0.204539 -0.454002 -0.187667 0.018963 -0.122181 -0.132309 0.308730 -0.037101 -0.018124 -0.109567 -0.233703 0.442837 0.607688 0.114740 -0.099093 0.135071 -0.071432 0.083784 -0.221746 -0.239165 0.149266 -0.097916 0.070996 -0.581272 0.133729 0.345812 0.329104 0.126783 -0.105778 0.155676 0.247676 -0.421994 -0.109839
发展 -0.008773 0.029306 0.165053 -0.682505 -0.403927 -0.117779 0.414149 0.046101 -0.109510 0.633460 0.199660 0.135926 -0.032573 -0.345729 0.234553 0.574475 0.259340 0.555079 0.148160 -0.109429 0.175281 -0.432457 0.408163 -0.129192 -0.337462 -0.075754 0.249537 0.023031 0.656499 0.207461 -0.121471 0.121982 0.220326 -0.085179 0.383380 0.189293 0.134526 -0.143306 -0.586575 0.027628 -0.240917 0.206940 -0.263618 0.166701 -0.431859 0.081201 -0.236927 0.525782 -0.379761 0.102679 0.502608 -0.093130 -0.254042 0.160371 -0.321510 0.086842 0.010086 -0.029408 0.038107 0.358524 0.032175 0.109875 0.218576 0.217333 0.157241 -0.164976 0.315447 -0.399844 -0.465366 0.219978 0.177367 0.294409 -0.247685 -0.018324 -0.056138 -0.272928 -0.174950 -0.039063 0.335844 0.541321 -0.012785 -0.072072 0.021038 0.006341 -0.099072 -0.123910 0.095741 0.158377 0.167886 0.335319 -0.124493 0.166802 0.231850 -0.069328 0.226143 -0.237089 -0.295915 0.019620 -0.138421 -0.050347
国家 -0.296530 -0.213665 -0.278079 -0.233240 -0.053153 -0.070332 0.379136 -0.213403 -0.294927 0.169640 0.165819 -0.078418 0.315012 0.145958 0.005540 0.419711 -0.024096 -0.168418 0.176176 0.173612 0.010961 -0.141324 0.264163 0.089236 -0.256883 -0.212029 0.388821 -0.273699 0.346678 0.023917 0.135514 0.426864 0.064799 -0.137144 -0.046335 0.253863 0.215242 0.142461 -0.404008 -0.308120 -0.373053 0.321398 -0.515138 0.462150 -0.421821 -0.197235 -0.337164 0.440306 -0.268466 -0.175001 -0.170756 -0.488467 -0.274071 0.306293 -0.058026 -0.115798 -0.061839 -0.063995 -0.089865 -0.142840 0.484580 0.624369 0.226543 0.255883 -0.347991 0.054802 0.122173 0.010700 -0.273488 0.205714 0.249713 -0.277241 -0.660840 -0.226463 0.002582 0.021159 -0.478809 -0.467876 0.189487 0.030053 0.103927 0.059489 0.214667 -0.020865 -0.021645 -0.094828 -0.337918 0.219899 0.107039 -0.113108 -0.044850 0.064516 0.243504 0.346601 0.002285 0.221699 -0.433670 0.268835 -0.399285 0.253024
国际 0.130124 0.012560 -0.266206 0.167350 0.056771 0.057590 0.465314 -0.038732 -0.261534 0.228835 0.277573 0.096731 0.178476 0.111558 0.473433 0.412130 -0.024666 0.034998 0.074288 0.089547 -0.185032 -0.269120 -0.021574 0.113655 -0.442591 -0.103596 0.131857 -0.330016 0.205391 0.055949 -0.168593 0.237875 -0.017778 0.438528 0.221401 0.588016 0.025801 -0.155862 -0.562838 -0.186485 -0.485066 -0.287031 -0.485551 0.281434 0.006760 0.162002 -0.044044 0.343909 -0.139999 -0.013826 0.090492 -0.271986 0.065689 0.399949 -0.222338 -0.563834 0.240725 0.032317 -0.184604 0.176033 0.389485 0.195854 0.659861 -0.070335 -0.013571 -0.172276 0.374976 0.166843 -0.108271 -0.020174 0.229377 0.105994 -0.591269 -0.736780 0.242368 -0.081695 -0.541821 -0.253487 0.324411 0.170411 -0.161958 -0.073678 -0.105253 -0.000149 -0.489612 -0.036518 -0.550405 0.327283 0.429236 -0.309317 0.095548 -0.437788 0.471567 0.100378 0.075214 0.264782 0.177464 0.456447 -0.213771 0.116694
经济 -0.135368 0.123012 -0.011729 -0.826226 -0.491423 -0.299652 0.577896 -0.303071 0.098378 0.920209 0.045558 0.270111 0.181423 -0.265768 -0.163574 0.680794 0.629333 0.702535 0.530423 0.631415 -0.167741 -0.289034 0.287702 -0.147272 -0.112286 0.057293 0.201262 -0.450899 0.284246 -0.028509 0.093096 -0.130780 0.341510 -0.272655 -0.014881 0.441265 0.025205 -0.194588 -0.248001 -0.357164 -0.405833 0.251517 -0.195419 0.498709 -0.065427 0.222732 -0.151375 0.306882 0.022601 -0.020799 0.251381 -0.064626 0.162804 0.276413 -0.046746 0.308923 -0.133245 0.079500 0.182357 0.055239 0.151334 -0.051169 0.142684 -0.348379 0.346878 -0.058433 0.140515 0.075585 -0.269914 0.170573 0.347940 0.174692 0.005393 0.069561 0.105921 -0.357237 -0.139944 -0.055852 0.420672 0.220025 -0.280288 0.218936 0.170004 -0.012821 -0.341970 -0.403779 0.028837 0.180725 0.274186 0.026192 -0.242928 -0.195558 0.333396 -0.108077 0.257414 -0.302061 -0.162338 0.223859 -0.243841 0.110170
月<DIGIT> 0.045607 0.410150 0.046996 0.079087 0.062319 -0.241756 -0.022970 0.248766 -0.249924 0.064193 0.180907 0.039755 0.245433 0.209840 0.490726 0.482830 0.138463 0.082916 -0.202948 0.541647 0.114417 0.281568 -0.043710 0.595959 0.602074 -0.228988 0.189193 -0.072410 -0.341030 -0.200886 -0.186468 -0.107752 -0.332052 0.251247 0.056303 0.281050 -0.087544 0.143249 -0.393166 0.115598 -0.669420 0.178571 -0.146237 0.334719 -0.286301 -0.076250 -0.473060 0.585824 -0.001838 0.443497 -0.219764 -0.363239 0.092389 0.203843 0.245169 -0.260408 0.263976 -0.168139 0.062526 -0.050992 0.367285 0.001362 0.120811 0.104301 -0.429069 -0.008916 0.656236 0.585587 -0.415824 0.115905 0.079905 -0.006609 -0.060797 0.137060 -0.373029 -0.541741 -0.544068 -0.389340 0.068059 0.274176 0.518437 0.087197 -0.130387 0.305975 0.033082 0.085849 -0.032014 0.155708 0.450212 -0.279235 -0.370114 -0.206590 0.316770 0.170405 0.392954 -0.108102 0.372445 0.127276 -0.236361 0.259328
政府 0.324803 0.095403 0.156022 -0.319518 -0.172357 0.073093 0.564080 0.197242 -0.562079 0.375501 -0.347097 0.218450 0.618231 -0.272541 0.144495 0.098138 0.308381 -0.108742 -0.265638 0.084224 0.090411 0.199644 0.198749 -0.116799 -0.009463 -0.090725 0.157773 -0.298684 0.281112 0.171183 -0.023067 0.068291 -0.016429 0.019236 -0.062865 0.405855 0.068684 -0.070496 0.083635 -0.218392 -0.366412 0.269686 -0.690888 0.383514 -0.220151 -0.010206 -0.191052 0.040341 0.154031 0.002880 0.330759 -0.606215 0.153223 0.433999 0.107606 -0.056899 -0.017294 -0.582885 0.306337 0.153227 0.834854 -0.216766 -0.252800 0.020753 -0.062774 0.066773 0.292516 0.674365 -0.120695 -0.106217 -0.054566 0.124913 0.142452 0.249985 0.032120 -0.088530 -0.235689 -0.385900 -0.112880 0.022847 -0.231806 0.168883 0.381580 -0.484753 0.004971 -0.223950 -0.029203 0.098219 0.255289 0.338872 -0.713154 0.017927 0.060701 -0.340808 0.404791 -0.147915 -0.246448 -0.052159 -0.156560 0.207360
美国 -0.089048 0.123485 -0.044129 -0.150070 -0.094306 0.287547 -0.005111 -0.361381 -0.326188 0.291236 -0.184036 0.424102 0.099384 0.092716 -0.142258 0.394544 0.033901 0.432272 0.038408 -0.020981 -0.261769 0.200001 0.225093 0.039611 0.391516 -0.051251 -0.180117 -0.715420 -0.003982 0.007251 -0.024595 0.062417 0.113631 0.113344 -0.128231 0.376023 0.120773 -0.234358 -0.342988 -0.424529 -0.054194 0.280977 -0.151088 0.590425 0.175958 0.613808 -0.526464 0.213654 0.301493 0.377275 0.177153 -0.108121 -0.571037 0.143722 0.052859 -0.259395 0.047134 0.059128 0.324855 -0.087051 0.799298 0.070995 0.089267 -0.052277 -0.121756 -0.148202 0.056953 0.195390 0.364901 -0.363257 -0.309918 -0.287999 -0.544703 -0.273960 0.143921 -0.199732 -0.255624 -0.322685 0.301392 0.670663 0.105237 0.120295 0.122408 -0.147375 -0.191957 0.141029 -0.124284 0.241411 -0.142776 0.008079 0.053799 -0.094618 0.250915 0.279891 -0.046861 0.323355 0.349671 0.229581 -0.432204 0.599328
记者 0.354447 0.236583 0.042302 0.062019 -0.312433 -0.410855 -0.152959 -0.035009 -0.307635 -0.382108 -0.108774 -0.024027 -0.483902 -0.010816 0.001291 0.133841 0.540423 0.108088 -0.394125 0.282498 0.115660 0.037574 -0.054170 0.509850 0.430598 -0.494741 -0.205892 -0.198973 -0.281594 -0.195747 -0.285515 0.034925 -0.028212 -0.237800 0.700464 0.141909 0.142241 0.262905 -0.122562 -0.350437 -0.795454 -0.039494 -0.178226 0.240356 -0.174851 -0.451892 -0.525588 0.581024 -0.198326 0.124674 -0.269603 -0.540974 0.462311 0.220106 0.193361 0.141571 0.676383 -0.435098 0.222382 0.135985 0.342809 0.400998 0.439374 0.063050 0.089353 -0.367986 0.343314 0.609250 -0.150452 -0.394165 0.118884 -0.148980 0.128247 0.338676 -0.072676 -0.245362 -0.646960 0.150845 0.523807 0.660481 0.032643 0.080480 0.047639 0.517201 0.268498 -0.145768 0.169249 0.034069 0.341609 -0.285205 -0.595170 -0.349205 0.366600 0.284397 -0.153913 -0.140824 0.414069 0.324201 -0.469354 0.137884
世界 0.029629 0.371225 -0.023878 -0.093087 0.301807 -0.154741 0.149001 0.042094 0.131030 0.370327 0.036057 -0.047933 0.040784 0.195137 0.184250 0.327634 0.227829 0.132125 0.397774 0.370603 0.228565 -0.580614 0.183999 0.139972 0.408898 -0.227535 0.272997 -0.640703 0.412272 0.379091 -0.012744 0.512793 -0.172886 0.647323 -0.318890 0.111658 0.208422 0.007931 -0.656385 -0.676681 -0.338128 -0.212418 -0.165121 0.156450 -0.019974 0.118565 -0.376214 0.569192 -0.385722 -0.011688 -0.245296 0.272651 -0.556998 0.512866 -0.114030 -0.047338 0.198726 -0.163224 -0.090905 0.336485 0.378057 0.398535 0.416116 0.047930 -0.118842 0.275152 -0.055637 -0.048020 0.055253 -0.064707 0.203553 -0.224425 0.077673 -0.478748 0.351494 -0.146028 -0.299526 0.079766 0.225944 0.308082 -0.060566 -0.294775 -0.186095 -0.263454 -0.446202 -0.093290 0.088330 -0.054253 0.037081 0.321579 -0.225869 -0.394691 0.460309 -0.056944 0.064349 0.231251 0.359962 0.164568 -0.043079 0.177785
进行 -0.441229 0.275171 -0.025654 0.051184 0.242788 0.245152 0.121842 0.104895 -0.311185 -0.328363 -0.067372 -0.087277 0.486095 0.248897 0.137535 0.440861 -0.062449 0.093590 -0.035517 -0.324495 -0.099993 -0.555952 0.192423 -0.151773 0.513466 0.074420 0.165142 -0.295138 0.307799 -0.008536 0.145488 0.373756 0.440627 0.196881 0.168461 0.196106 -0.210414 -0.153201 -0.155833 0.220843 -0.421828 0.352923 0.152263 0.116529 -0.217969 0.137488 -0.091699 0.604041 0.178309 0.540449 -0.209374 -0.005704 -0.066686 0.043263 0.175083 0.035090 0.431206 -0.020655 -0.023181 0.211191 0.338045 -0.074574 -0.242984 0.273707 -0.086190 0.307905 0.597866 0.550631 0.635420 -0.191141 0.204959 0.412908 -0.108572 0.088308 -0.200096 0.185064 -0.095248 -0.081224 0.081623 0.135483 0.314631 -0.282534 0.070613 0.548600 0.087648 -0.118299 -0.420274 -0.112148 0.132980 -0.063687 -0.273544 -0.588547 0.263241 0.418018 0.146366 -0.240003 0.072470 0.219456 -0.062555 -0.113324
工作 -0.224348 -0.010255 -0.174249 -0.589230 -0.236090 0.179076 0.427292 0.131292 -0.335831 -0.142465 0.230975 0.424779 0.097842 -0.018361 0.040747 0.259701 0.598165 -0.071988 -0.014464 -0.098559 0.242794 0.237312 0.127323 0.047047 0.332013 -0.172002 -0.431103 0.150598 0.283895 -0.076364 0.171933 0.102742 0.039702 -0.277573 0.165848 0.090753 0.072097 -0.236151 -0.161671 -0.073269 -0.314984 0.209014 -0.141226 0.330551 0.271659 -0.038033 0.252677 0.292888 0.231285 0.416212 -0.038927 -0.459840 -0.245078 0.042886 -0.000073 0.139593 0.234340 -0.371260 -0.231811 0.424121 0.211637 -0.020932 0.129983 0.741935 0.082546 0.307456 0.263137 0.444720 -0.053802 0.172858 0.561704 0.357194 -0.044631 0.344530 -0.169331 -0.072788 -0.131421 -0.175384 0.610530 0.077066 0.177328 0.323457 -0.125173 -0.015122 0.257961 -0.168206 -0.040805 -0.267958 0.013515 -0.122439 -0.267509 -0.085128 0.168581 -0.269215 -0.012089 -0.237449 0.083882 0.555231 0.331367 -0.017132
<DIGIT>万 0.068546 -0.014012 -0.078292 -0.130579 0.174408 -0.036360 -0.240668 0.117365 -0.396034 -0.195166 0.089821 0.082387 0.337771 -0.145445 -0.280826 0.904267 0.039797 -0.334094 -0.007148 0.822518 0.265904 0.171973 0.177704 0.246650 0.337289 -0.376484 -0.104253 -0.271927 -0.096796 0.487777 0.217605 0.074264 0.386470 0.740622 0.004292 -0.097881 -0.289091 -0.325425 -0.089568 0.002169 -0.459152 0.629049 0.099793 0.180107 -0.167547 -0.188459 -0.039275 0.380126 -0.626450 -0.077763 0.160537 0.208571 -0.110739 -0.129673 0.155493 -0.118622 -0.004680 -0.233566 0.304181 -0.541430 0.701800 -0.137395 0.154744 0.348933 -0.084159 0.471977 0.074359 0.141095 -0.521616 0.011124 -0.086895 0.254010 -0.109034 -0.020071 0.279492 -0.072891 -0.619040 0.026114 0.178141 0.380168 -0.067669 -0.002209 -0.372625 -0.185230 -0.010970 0.110012 0.053068 -0.390564 0.102317 -0.083228 -0.180117 0.220723 -0.144927 0.093104 0.757414 0.052031 0.329865 0.200417 -0.341320 -0.297880
,中 0.187424 0.312249 -0.078890 -0.136294 0.011626 0.205247 0.383332 -0.058130 -0.107542 -0.105412 0.133192 -0.134577 0.080768 -0.165835 0.243983 0.872242 0.204165 0.338289 -0.102395 -0.052404 -0.118916 -0.030329 0.208655 0.008320 -0.031396 -0.212118 0.334263 -0.250070 0.330038 0.186506 0.093284 0.263292 0.095667 -0.252521 -0.185215 -0.113227 0.086544 0.075663 -0.095412 -0.284955 -0.241630 -0.148212 -0.369407 0.369754 0.194609 -0.201986 -0.534470 0.535867 -0.241041 0.168411 0.134543 -0.015203 -0.500875 0.018746 0.015607 -0.558006 -0.004883 -0.023391 -0.054494 -0.187626 0.473357 0.118431 0.239863 0.047458 -0.647153 -0.017588 0.207155 -0.149924 -0.039458 -0.215473 0.105420 -0.094288 -0.134136 0.079700 -0.248877 0.020964 -0.393434 -0.091074 0.169809 0.526721 0.214914 0.128083 -0.014575 0.037963 -0.072172 0.097031 0.122034 -0.084112 -0.231643 0.305154 -0.359997 0.161196 0.241244 0.143750 0.033364 -0.291354 0.368381 0.081877 -0.167497 0.120490
表示 0.385525 0.629748 0.061603 -0.079024 0.042124 0.069216 0.160516 0.267586 -0.047199 -0.175343 -0.276936 -0.074902 -0.169548 0.097618 0.221073 0.251062 0.385961 0.352678 -0.122098 -0.021351 0.124175 0.115661 0.375284 0.003298 -0.184729 -0.240105 -0.050534 -0.168016 0.701824 0.025041 0.447199 -0.205600 0.061725 0.235333 -0.093986 0.485989 -0.053874 0.042457 0.041912 -0.214667 -0.350382 -0.075273 -0.241942 0.115540 -0.193195 -0.132285 -0.260375 0.462446 0.054876 0.281012 0.337360 -0.414121 -0.018824 -0.022898 0.313687 -0.348894 0.482655 -0.296278 0.010558 0.013182 0.476488 -0.244327 -0.246336 0.117837 0.388619 -0.502640 0.231515 0.159882 -0.220069 -0.422516 0.077194 0.228329 -0.305583 -0.163113 -0.068604 0.208261 -0.176446 -0.340091 0.210685 0.447676 -0.101069 0.141296 0.161756 -0.393166 0.459184 -0.146222 -0.295696 0.183116 0.115644 0.105496 -0.862595 0.174001 0.360850 0.554811 -0.173085 -0.174155 0.065694 0.284681 -0.208456 0.135052
合作 -0.070185 0.018370 0.100916 -0.499497 -0.060966 0.159157 0.753592 0.031554 0.072111 0.128485 0.430568 0.078295 -0.106555 0.128511 0.367514 0.218676 0.243534 -0.131744 -0.210365 -0.018722 0.117804 -0.444779 0.197224 -0.111141 -0.159947 -0.284772 0.172014 -0.291463 0.448083 -0.253630 -0.214629 0.320316 0.346349 -0.003742 0.311055 0.265121 0.098898 -0.166004 -0.454754 -0.373611 0.041931 0.211174 -0.270434 -0.049511 -0.009567 0.366608 -0.187056 0.850936 0.267242 0.096554 0.468130 -0.166659 0.059833 0.154163 -0.341763 0.188501 0.327115 0.022242 -0.194008 0.525647 0.207530 -0.335387 -0.057050 0.383239 -0.254754 -0.105420 0.300465 0.059855 -0.452426 -0.333390 0.485860 0.823005 -0.140282 0.065206 -0.121265 -0.109829 -0.172572 -0.251022 0.643429 0.450212 -0.301459 0.626945 0.149976 -0.203736 0.037193 -0.641306 0.033144 0.133872 0.351430 0.225928 -0.030828 0.039863 0.151774 0.020489 0.279748 -0.198722 0.134758 0.193677 -0.000039 0.352137
一个 0.063951 -0.229547 0.237835 -0.091751 -0.014539 -0.065445 0.152841 -0.058240 0.371545 0.021986 0.578751 0.407857 0.320301 -0.383800 -0.065177 -0.000224 0.104735 0.047928 0.010373 0.104426 -0.019503 0.106223 0.058169 0.068832 0.483693 -0.230615 0.038395 0.208094 0.213110 0.561430 0.364108 0.495054 -0.201406 0.256043 0.033245 0.163661 0.549099 -0.140003 0.144152 0.197455 0.019489 0.253348 -0.167837 0.371721 0.329918 0.131102 -0.558152 0.699221 0.031758 -0.008774 0.100571 -0.014667 -0.319091 0.527854 0.040925 -0.006114 -0.209062 0.000338 0.097864 -0.004558 0.087575 0.184113 -0.030035 -0.207500 0.231583 0.196559 0.102920 0.376980 -0.178995 -0.002202 -0.104042 0.280535 -0.109591 -0.050697 0.111969 0.089953 -0.277022 -0.056270 -0.051140 0.555914 0.205399 -0.144518 0.130575 0.024353 0.088109 -0.296317 0.081564 0.028193 0.067651 -0.125080 -0.241604 -0.316946 0.253663 -0.044685 0.161358 0.063172 0.091354 0.220013 -0.121723 0.433951
问题 -0.167381 0.495282 0.077375 -0.325583 -0.193066 0.280136 0.465382 0.311604 -0.015591 0.100219 -0.438798 0.263931 0.394843 -0.297867 0.281083 0.040959 0.330925 -0.007495 -0.030229 -0.165854 -0.156421 0.266356 0.110455 -0.319035 0.082087 -0.274142 0.286500 0.173870 0.393198 0.155174 0.320586 0.223450 -0.036143 -0.071980 0.380079 0.275619 0.501613 -0.353485 -0.359278 0.007314 -0.634453 0.582528 -0.186418 0.062936 -0.311612 0.208505 0.222783 0.510267 0.028364 0.351240 0.142627 -0.247002 0.202623 -0.138606 -0.436267 -0.124733 0.248177 -0.301792 0.661486 -0.037595 0.235039 0.292055 -0.183364 0.169134 0.072642 -0.126855 -0.389887 0.266930 -0.038649 -0.131796 0.132823 0.580007 -0.439284 -0.407692 0.360060 0.077832 0.055657 -0.211920 0.352068 0.338510 -0.117692 0.175409 0.098220 0.277410 -0.422526 -0.086822 0.152461 -0.334977 0.065550 -0.047351 -0.204238 -0.219184 0.104327 0.241374 -0.121550 -0.014966 0.069555 0.194414 -0.196921 -0.136491
地区 -0.048142 -0.077444 -0.123250 -0.560387 -0.388910 0.294797 0.215362 -0.101064 -0.249636 0.083355 0.175220 -0.102189 0.372323 0.317511 -0.336493 0.369668 0.185560 -0.066844 0.117614 0.335557 0.523750 -0.261716 0.250630 -0.248655 -0.203263 -0.555081 0.313056 -0.388774 0.068900 -0.033679 0.497797 0.482742 0.070270 -0.039338 -0.061505 0.452748 0.294124 0.058036 -0.433464 0.005854 -0.221533 0.105672 -0.085451 0.370406 -0.444541 0.092425 0.110508 0.578024 -0.043201 0.585951 0.138781 -0.038095 0.100668 0.305632 0.275301 0.267973 0.182213 -0.168810 0.389182 -0.045792 0.022518 0.083248 0.246501 -0.059852 -0.166470 -0.204084 0.011866 0.253587 -0.366585 0.184106 0.316707 0.346745 -0.581464 -0.125451 0.093192 -0.575665 -0.024333 -0.164525 0.147117 0.118160 -0.100542 -0.147005 0.039754 0.108464 -0.225217 -0.175719 0.267825 -0.015223 -0.162709 0.191260 -0.382238 0.133975 0.159747 0.128668 0.733016 0.403744 0.158076 0.218266 0.109455 0.010011
公司 0.014290 0.237933 -0.508078 0.061923 0.080433 -0.216968 0.205782 0.113716 -0.508157 -0.286687 -0.048276 0.626414 -0.115991 -0.263243 0.400130 0.456881 -0.130127 0.046137 -0.107180 0.018044 -0.057305 0.151851 0.697633 -0.057544 -0.119793 0.086388 0.239166 -0.318158 -0.046243 -0.090522 -0.199986 -0.020742 0.347518 0.398395 0.285033 -0.127876 0.454309 -0.520041 0.041037 -0.308436 -0.449551 0.020301 0.041041 0.467778 -0.028599 -0.120619 -0.457961 0.375799 0.359362 0.178969 0.215292 -0.464532 0.149345 0.026404 0.411352 0.475905 0.178392 -0.201045 0.205900 -0.163659 -0.023997 -0.271021 -0.147968 0.115811 -0.007452 -0.104156 0.412682 -0.271035 -0.332811 -0.253022 -0.004571 0.523977 -0.027542 -0.130685 0.173880 -0.112472 -0.658803 -0.207783 0.478575 0.285403 -0.029642 -0.025275 0.075922 -0.355844 0.005013 0.142083 -0.312962 0.356968 0.285033 0.300405 0.045883 0.067851 -0.416123 0.157766 0.351629 0.280869 0.376394 0.554610 -0.038380 0.308575
北京 0.180004 -0.380936 -0.378113 -0.062729 -0.421057 0.155775 0.259438 0.362941 -0.090747 0.077950 -0.060052 0.253622 0.118406 0.309389 0.498737 0.635364 0.385930 -0.017933 -0.097401 0.219305 0.274793 0.178074 -0.351381 0.172302 0.117811 -0.012637 -0.034061 -0.508308 0.370709 0.226768 0.568849 0.396845 -0.164489 -0.029063 0.278136 -0.169437 0.244040 0.243925 -0.240365 -0.067414 -0.370364 -0.376313 0.003718 0.396095 0.067172 -0.359956 -0.407019 0.246912 0.053875 0.371404 0.006706 -0.215293 -0.110462 0.052838 0.162336 -0.071502 0.010632 -0.104648 0.065849 0.298147 0.420142 0.464543 0.069526 0.525558 -0.687149 -0.016999 0.515321 0.163469 -0.254450 -0.000722 0.318810 -0.011251 0.106422 0.221104 -0.200058 -0.523606 -0.818098 0.503345 -0.133405 0.141068 0.096068 0.008710 -0.244289 0.262156 0.094284 0.245766 -0.376082 0.256284 0.247639 0.034443 -0.013239 -0.116257 0.776437 0.261903 -0.098840 -0.104043 0.533784 0.227778 0.085252 0.341064
,在 0.137214 0.186236 -0.226435 -0.122047 -0.055032 0.010153 0.337429 -0.071994 0.008202 0.220210 0.201162 0.086176 0.102326 0.304516 0.219786 0.435146 0.066087 0.301991 0.041261 -0.054211 0.260677 -0.012164 0.310482 -0.231514 0.303090 -0.280935 0.161416 -0.078367 0.158657 0.053723 0.036740 0.411382 0.144544 -0.079165 0.288376 0.226389 -0.161961 -0.028425 0.004128 0.007228 -0.233173 -0.138781 -0.280872 0.089991 0.044769 -0.191848 -0.303363 0.187107 0.032843 0.301334 -0.151567 -0.079023 0.034982 0.345196 -0.134572 -0.136865 -0.039365 -0.400013 -0.006320 -0.394079 0.316947 0.107714 0.180427 0.045067 0.031624 -0.034341 0.063793 0.120735 -0.106020 -0.184451 0.002602 0.106657 0.040384 0.105020 0.022719 0.118464 -0.114017 -0.098749 0.201291 0.258589 0.363869 -0.057401 -0.225213 0.158486 -0.132941 -0.261664 -0.033927 -0.031792 0.044563 -0.178379 -0.342162 -0.069069 0.136318 -0.060004 0.198186 -0.059606 0.462815 0.365119 -0.082800 0.084282