2 100
</s> 0.004003 0.004419 -0.003830 -0.003278 0.001367 0.003021 0.000941 0.000211 -0.003604 0.002218 -0.004356 0.001250 -0.000751 -0.000957 -0.003316 -0.001882 0.002579 0.003025 0.002969 0.001597 0.001545 -0.003803 -0.004096 0.004970 0.003801 0.003090 -0.000604 0.004016 -0.000495 0.000735 -0.000149 -0.002983 0.001312 -0.001337 -0.003825 0.004754 0.004379 -0.001095 -0.000226 0.000509 -0.003638 -0.004007 0.004555 0.000063 -0.002582 -0.003042 -0.003076 0.001697 0.000201 0.001331 -0.004214 -0.003808 -0.000130 0.001144 0.002550 -0.003170 0.004080 0.000927 0.001120 -0.000608 0.002986 -0.002288 -0.002097 0.002158 -0.000753 0.001031 0.001805 -0.004089 -0.001983 0.002914 0.004232 0.003932 -0.003047 -0.002108 -0.000909 0.002001 -0.003788 0.002998 0.002788 -0.001599 -0.001552 -0.002238 0.004229 0.003912 -0.001180 0.004215 0.004820 0.001815 0.004983 -0.003111 -0.001532 -0.002107 -0.002907 0.002815 0.001579 0.000425 -0.002194 0.001524 0.003059 0.000194 
, -0.021874 0.031931 -0.109440 0.091179 0.034322 0.171154 0.031026 -0.186664 -0.246185 0.200354 -0.027422 0.209473 0.137754 0.060602 0.003652 -0.096852 -0.136356 0.246482 -0.059816 -0.045564 0.073195 0.044605 -0.155071 0.018444 0.041566 -0.176333 -0.010167 -0.099519 0.125194 0.046577 0.083151 -0.044768 0.009144 0.013223 -0.071982 0.023193 -0.008135 0.146030 -0.213360 -0.010118 0.029913 0.072652 -0.103954 -0.016391 0.025574 0.058457 0.019308 -0.093227 0.144718 0.026101 0.110185 -0.044913 -0.224000 -0.199070 -0.115748 -0.115961 -0.052713 -0.104362 0.087334 0.133038 -0.048652 0.071842 0.128386 0.141706 0.046604 0.034625 0.091737 -0.020896 0.031838 0.009980 -0.142806 -0.053302 -0.031987 -0.103413 -0.099283 0.004939 0.238938 -0.075445 0.211568 0.064748 -0.079062 0.146163 -0.210825 -0.042661 0.388845 0.008095 0.033458 -0.114788 -0.072235 -0.119444 0.034662 -0.050584 -0.093597 -0.189286 -0.050852 0.053947 0.007226 -0.045966 0.033246 0.185009 
